digraph Tree {
node [shape=box, fontname="helvetica"] ;
edge [fontname="helvetica"] ;
0 [label="x[1] <= 0.5\ngini = 0.27\nsamples = 10127\nvalue = [8500, 1627]"] ;
1 [label="gini = 0.0\nsamples = 8500\nvalue = [8500, 0]"] ;
0 -> 1 [labeldistance=2.5, labelangle=45, headlabel="True"] ;
2 [label="gini = 0.0\nsamples = 1627\nvalue = [0, 1627]"] ;
0 -> 2 [labeldistance=2.5, labelangle=-45, headlabel="False"] ;
}
